#include "sequential_13_model.h"
#include "embedia_debug.h"

// Initialization function prototypes
conv2d_layer_t init_conv2d_33_data(void);
conv2d_layer_t init_conv2d_34_data(void);
conv2d_layer_t init_conv2d_35_data(void);
dense_layer_t init_dense_44_data(void);
dense_layer_t init_dense_45_data(void);
dense_layer_t init_dense_46_data(void);
dense_layer_t init_dense_47_data(void);


// Global Variables
conv2d_layer_t conv2d_33_data;
conv2d_layer_t conv2d_34_data;
conv2d_layer_t conv2d_35_data;
dense_layer_t dense_44_data;
dense_layer_t dense_45_data;
dense_layer_t dense_46_data;
dense_layer_t dense_47_data;


void model_init(){
    conv2d_33_data = init_conv2d_33_data();
    conv2d_34_data = init_conv2d_34_data();
    conv2d_35_data = init_conv2d_35_data();
    dense_44_data = init_dense_44_data();
    dense_45_data = init_dense_45_data();
    dense_46_data = init_dense_46_data();
    dense_47_data = init_dense_47_data();

}

void model_predict(data3d_t input, data1d_t * output){
  
    prepare_buffers();
    
    //******************** LAYER 0 *******************//
    // Layer name: conv2d_33
    data3d_t output0;
    conv2d_padding_layer(conv2d_33_data, input, &output0);
    // Debug function for layer conv2d_33
    print_data3d_t("conv2d_33", output0);
    
    //******************** LAYER 1 *******************//
    // Layer name: conv2d_331
    relu_activation(output0.data, 18432);
    // Debug function for layer conv2d_331
    print_data3d_t("conv2d_331", output0);
    
    //******************** LAYER 2 *******************//
    // Layer name: average_pooling2d_21
    input = output0;
    static const pooling2d_layer_t average_pooling2d_21_data = { 2, 2 };
    avg_pooling2d_layer(average_pooling2d_21_data, input, &output0);
    // Debug function for layer average_pooling2d_21
    print_data3d_t("average_pooling2d_21", output0);
    
    //******************** LAYER 3 *******************//
    // Layer name: conv2d_34
    input = output0;
    conv2d_padding_layer(conv2d_34_data, input, &output0);
    // Debug function for layer conv2d_34
    print_data3d_t("conv2d_34", output0);
    
    //******************** LAYER 4 *******************//
    // Layer name: conv2d_341
    relu_activation(output0.data, 7488);
    // Debug function for layer conv2d_341
    print_data3d_t("conv2d_341", output0);
    
    //******************** LAYER 5 *******************//
    // Layer name: max_pooling2d_1
    input = output0;
    static const pooling2d_layer_t max_pooling2d_1_data = { 2, 2 };
    max_pooling2d_layer(max_pooling2d_1_data, input, &output0);
    // Debug function for layer max_pooling2d_1
    print_data3d_t("max_pooling2d_1", output0);
    
    //******************** LAYER 6 *******************//
    // Layer name: conv2d_35
    input = output0;
    conv2d_padding_layer(conv2d_35_data, input, &output0);
    // Debug function for layer conv2d_35
    print_data3d_t("conv2d_35", output0);
    
    //******************** LAYER 7 *******************//
    // Layer name: conv2d_351
    relu_activation(output0.data, 2592);
    // Debug function for layer conv2d_351
    print_data3d_t("conv2d_351", output0);
    
    //******************** LAYER 8 *******************//
    // Layer name: flatten_11
    input = output0;
    data1d_t output1;
    flatten3d_layer(input, &output1);
    // Debug function for layer flatten_11
    print_data1d_t("flatten_11", output1);
    
    //******************** LAYER 9 *******************//
    // Layer name: dense_44
    data1d_t input1;
    input1 = output1;
    dense_layer(dense_44_data, input1, &output1);
    
    // Debug function for layer dense_44
    print_data1d_t("dense_44", output1);
    
    //******************** LAYER 10 *******************//
    // Layer name: dense_441
    relu_activation(output1.data, 12);
    // Debug function for layer dense_441
    print_data1d_t("dense_441", output1);
    
    //******************** LAYER 11 *******************//
    // Layer name: dense_45
    input1 = output1;
    dense_layer(dense_45_data, input1, &output1);
    
    // Debug function for layer dense_45
    print_data1d_t("dense_45", output1);
    
    //******************** LAYER 12 *******************//
    // Layer name: dense_451
    relu_activation(output1.data, 10);
    // Debug function for layer dense_451
    print_data1d_t("dense_451", output1);
    
    //******************** LAYER 13 *******************//
    // Layer name: dense_46
    input1 = output1;
    dense_layer(dense_46_data, input1, &output1);
    
    // Debug function for layer dense_46
    print_data1d_t("dense_46", output1);
    
    //******************** LAYER 14 *******************//
    // Layer name: dense_461
    relu_activation(output1.data, 8);
    // Debug function for layer dense_461
    print_data1d_t("dense_461", output1);
    
    //******************** LAYER 15 *******************//
    // Layer name: dense_47
    input1 = output1;
    dense_layer(dense_47_data, input1, &output1);
    
    // Debug function for layer dense_47
    print_data1d_t("dense_47", output1);
    
    //******************** LAYER 16 *******************//
    // Layer name: dense_471
    softmax_activation(output1.data, 4);
    // Debug function for layer dense_471
    print_data1d_t("dense_471", output1);
    

    *output = output1;

}

int model_predict_class(data3d_t input, data1d_t * results){
  
   
    model_predict(input, results);
    
    return argmax(*results);
    //return argmax(data1d_t);

}

// Implementation of initialization functions



conv2d_layer_t init_conv2d_33_data(void){

        static filter_t filters[8];
        
        static const float weights0[]={
           0.24719783663749695,    -0.2095179557800293,    -0.01994493044912815, 
           0.010116102173924446,    -0.09621258080005646,    -0.2899170517921448, 
           0.22567512094974518,    0.28646260499954224,    -0.22927410900592804 
        };
        static filter_t filter0 = { weights0, 0.025050796568393707}; 
        filters[0]=filter0;
            
        static const float weights1[]={
           -0.1556835025548935,    0.1691015511751175,    0.49825966358184814, 
           -0.31445056200027466,    0.11455678194761276,    0.3277530372142792, 
           -0.18469275534152985,    0.12144561111927032,    -0.1869477778673172 
        };
        static filter_t filter1 = { weights1, -0.1540050357580185}; 
        filters[1]=filter1;
            
        static const float weights2[]={
           0.3693065047264099,    0.2829928696155548,    0.3237634599208832, 
           0.25454458594322205,    -0.16042658686637878,    -0.21014046669006348, 
           -0.1658163070678711,    -0.2830493748188019,    -0.22843961417675018 
        };
        static filter_t filter2 = { weights2, -0.03125623241066933}; 
        filters[2]=filter2;
            
        static const float weights3[]={
           -0.13347963988780975,    0.0741543173789978,    0.3756006956100464, 
           -0.33353427052497864,    -0.17981918156147003,    0.07766316086053848, 
           -0.005831171292811632,    -0.0009049754007719457,    0.08404654264450073 
        };
        static filter_t filter3 = { weights3, 0.010636897757649422}; 
        filters[3]=filter3;
            
        static const float weights4[]={
           0.08764015883207321,    -0.260082483291626,    0.04871907830238342, 
           0.06382887065410614,    0.03536788374185562,    0.03395799174904823, 
           -0.0602879598736763,    0.35166722536087036,    -0.3329285681247711 
        };
        static filter_t filter4 = { weights4, -0.014845806173980236}; 
        filters[4]=filter4;
            
        static const float weights5[]={
           0.1144995465874672,    0.2201603353023529,    0.12264414131641388, 
           0.033145394176244736,    0.19343732297420502,    0.06730608642101288, 
           -0.06365048885345459,    0.012338312342762947,    0.1435336470603943 
        };
        static filter_t filter5 = { weights5, -0.23102347552776337}; 
        filters[5]=filter5;
            
        static const float weights6[]={
           -0.40966278314590454,    -0.22598694264888763,    -0.10140500962734222, 
           -0.07552290707826614,    0.016293663531541824,    0.006711340509355068, 
           0.15005381405353546,    0.30933454632759094,    0.4296693205833435 
        };
        static filter_t filter6 = { weights6, -0.035542961210012436}; 
        filters[6]=filter6;
            
        static const float weights7[]={
           0.260791540145874,    -0.11290451884269714,    -0.14279693365097046, 
           0.3200250566005707,    -0.10289929807186127,    -0.03275430575013161, 
           0.08786869794130325,    -0.10056114196777344,    -0.1767318844795227 
        };
        static filter_t filter7 = { weights7, -0.009556696750223637}; 
        filters[7]=filter7;
            
        conv2d_layer_t layer = {8, filters, 1, { 3, 3 }, 1, {1, 1} };
        return layer;
}
        

conv2d_layer_t init_conv2d_34_data(void){

        static filter_t filters[13];
        
        static const float weights0[]={
           -0.1306230127811432,    0.07091745734214783,    0.13403400778770447, 
           0.059966109693050385,    0.10109786689281464,    0.17398348450660706, 
           0.26471734046936035,    0.2022741138935089,    -0.24333710968494415, 
           0.14356237649917603,    -0.04733992740511894,    -0.01893857680261135, 
           0.15614041686058044,    -0.0958467498421669,    -0.09820951521396637, 
           -0.013939594849944115,    -0.3402789235115051,    -0.11794353276491165, 
           -0.054705794900655746,    0.14129483699798584,    0.008061747066676617, 
           0.07004063576459885,    0.2289429008960724,    -0.07545898109674454, 
           0.32150349020957947,    0.16607822477817535,    -0.029159747064113617, 
           -0.4559241831302643,    -0.24659639596939087,    -0.10006815195083618, 
           -0.5237447619438171,    -0.25416848063468933,    0.21942199766635895, 
           -0.3809509575366974,    -0.14999842643737793,    0.2049775868654251, 
           0.16910135746002197,    0.09431222081184387,    -0.2445070892572403, 
           0.22910131514072418,    -0.02392813190817833,    -0.26688578724861145, 
           0.038606684654951096,    -0.3124679625034332,    -0.40165889263153076, 
           0.00070173479616642,    0.07673141360282898,    0.0727444589138031, 
           0.11745248734951019,    0.11784736067056656,    -0.18760761618614197, 
           0.04212569072842598,    -0.30243411660194397,    -0.14494383335113525, 
           0.08943043649196625,    -0.21738925576210022,    0.07525650411844254, 
           -0.16860544681549072,    -0.537541389465332,    0.13475388288497925, 
           -0.42584553360939026,    -0.5661343336105347,    0.23304124176502228, 
           -0.05216124653816223,    0.019447490572929382,    0.27166131138801575, 
           -0.10773929953575134,    0.5217625498771667,    0.19215890765190125, 
           0.3829881250858307,    0.44063907861709595,    -0.0206107459962368 
        };
        static filter_t filter0 = { weights0, -0.05066768825054169}; 
        filters[0]=filter0;
            
        static const float weights1[]={
           -0.4327665865421295,    0.019015058875083923,    0.2065219134092331, 
           0.15924181044101715,    0.18885210156440735,    -0.00646925438195467, 
           -0.1194712221622467,    0.22657209634780884,    -0.10873720794916153, 
           0.24016694724559784,    0.03658582270145416,    -0.2416321486234665, 
           -0.13368745148181915,    -0.2083531767129898,    0.07442393153905869, 
           -0.27103397250175476,    -0.15515339374542236,    0.17648763954639435, 
           -0.14105813205242157,    0.21178670227527618,    0.039958298206329346, 
           -0.046433813869953156,    0.1236078292131424,    -0.07794395089149475, 
           -0.08371634036302567,    -0.42437201738357544,    0.02875770442187786, 
           0.08246055245399475,    -0.38147225975990295,    0.04361453279852867, 
           -0.026187218725681305,    -0.042336758226156235,    0.2238887995481491, 
           -0.19810035824775696,    0.006499821320176125,    0.12111809849739075, 
           -0.10924115031957626,    0.09287494421005249,    0.24741655588150024, 
           0.026812976226210594,    -0.01944647543132305,    0.03120661899447441, 
           -0.2760795056819916,    0.06485217064619064,    -0.1758607029914856, 
           0.13404206931591034,    0.21140240132808685,    0.016908934339880943, 
           -0.08158735930919647,    -0.15973219275474548,    0.0571877621114254, 
           -0.10336975753307343,    -0.01554314699023962,    -0.026845723390579224, 
           0.10663178563117981,    -0.22710034251213074,    0.10228195041418076, 
           0.06246263533830643,    -0.04325186833739281,    0.33530908823013306, 
           0.3147980868816376,    0.6033899784088135,    0.3263428211212158, 
           -0.031050167977809906,    -0.00116545963101089,    0.2505817115306854, 
           0.1753268837928772,    0.20039406418800354,    0.12206214666366577, 
           -0.08565942198038101,    -0.19205763936042786,    0.11706973612308502 
        };
        static filter_t filter1 = { weights1, -0.05168371647596359}; 
        filters[1]=filter1;
            
        static const float weights2[]={
           -0.04346250742673874,    -0.09345978498458862,    0.3300783336162567, 
           0.15428823232650757,    -0.03354025259613991,    0.2776745557785034, 
           -0.07053931802511215,    0.11059007048606873,    0.0035580936819314957, 
           -0.3152960240840912,    -0.02194780856370926,    -0.08173301815986633, 
           -0.04080982878804207,    -0.02597096376121044,    -0.01929091103374958, 
           0.010189090855419636,    0.14979709684848785,    0.054523102939128876, 
           0.00020500950631685555,    -0.35599780082702637,    -0.12238536030054092, 
           -0.3733900785446167,    -0.4347621202468872,    -0.3206522762775421, 
           -0.24892111122608185,    -0.14434053003787994,    -0.19409948587417603, 
           0.2611764371395111,    0.2113923728466034,    0.16443444788455963, 
           0.22956840693950653,    0.08229991793632507,    -0.1631179004907608, 
           0.32085156440734863,    0.04802214726805687,    -0.06632416695356369, 
           -0.12869340181350708,    -0.23516243696212769,    0.2301849126815796, 
           -0.06051260605454445,    -0.18700657784938812,    0.1729155033826828, 
           0.1971849948167801,    0.07013754546642303,    0.04399387910962105, 
           -0.08974489569664001,    -0.2939888536930084,    -0.13753639161586761, 
           -0.26569655537605286,    0.09858659654855728,    -0.11317107081413269, 
           -0.06832389533519745,    0.2113112211227417,    0.09287043660879135, 
           0.3528435528278351,    0.3120671212673187,    0.18271182477474213, 
           0.5495102405548096,    0.3849683105945587,    0.08080508559942245, 
           0.40617579221725464,    0.23265457153320312,    0.23899583518505096, 
           0.08281145989894867,    -0.06579677760601044,    0.13086429238319397, 
           0.004332507960498333,    -0.43646225333213806,    -0.2149800807237625, 
           0.052679069340229034,    -0.06541257351636887,    -0.18730418384075165 
        };
        static filter_t filter2 = { weights2, -0.06939700990915298}; 
        filters[2]=filter2;
            
        static const float weights3[]={
           -0.26007968187332153,    -0.39045026898384094,    0.12764744460582733, 
           -0.2322089672088623,    -0.167167529463768,    0.20879848301410675, 
           0.02549237757921219,    0.0027998003643006086,    0.1267273873090744, 
           -0.1026887372136116,    0.10336558520793915,    -0.031278837472200394, 
           0.12367212772369385,    0.09025111049413681,    0.09839121252298355, 
           0.17860904335975647,    0.16342513263225555,    -0.0077677504159510136, 
           -0.1887599676847458,    -0.24026747047901154,    -0.06193378567695618, 
           -0.18967662751674652,    -0.02705768123269081,    0.03701893612742424, 
           -0.13701143860816956,    0.20883512496948242,    -0.05255727842450142, 
           -0.020218057557940483,    0.06704903393983841,    -0.5151863098144531, 
           0.07256127893924713,    0.015127737075090408,    -0.4238097071647644, 
           0.28170326352119446,    -0.1083485558629036,    -0.5561638474464417, 
           -0.42873769998550415,    -0.4277094006538391,    0.24859707057476044, 
           -0.31802740693092346,    -0.05858376622200012,    0.1574835628271103, 
           0.11415549367666245,    0.018391629680991173,    0.09303643554449081, 
           0.12771177291870117,    0.011610333807766438,    0.08524977415800095, 
           -0.09413179755210876,    0.16360333561897278,    0.12073763459920883, 
           0.1655115932226181,    0.09697264432907104,    0.1853024959564209, 
           0.09167592972517014,    0.023125100880861282,    -0.18501929938793182, 
           0.17439213395118713,    -0.003909220453351736,    -0.11699044704437256, 
           0.24774213135242462,    0.027282647788524628,    -0.20880094170570374, 
           0.13115541636943817,    -0.2303839921951294,    -0.21087762713432312, 
           -0.07072355598211288,    -0.1396881490945816,    -0.04732825607061386, 
           0.17089343070983887,    0.20411746203899384,    0.332444429397583 
        };
        static filter_t filter3 = { weights3, -0.1956762820482254}; 
        filters[3]=filter3;
            
        static const float weights4[]={
           -0.04238256439566612,    0.2659762501716614,    0.27867648005485535, 
           -0.043434008955955505,    0.11958824098110199,    0.41278037428855896, 
           -0.25639644265174866,    0.08401016145944595,    0.34830665588378906, 
           -0.014314526692032814,    -0.22607047855854034,    -0.09129594266414642, 
           -0.01131374854594469,    -0.20403237640857697,    -0.2637900114059448, 
           0.11113391816616058,    -0.09827681630849838,    -0.16031911969184875, 
           -0.056033141911029816,    -0.09311994165182114,    -0.0030988086946308613, 
           0.05042923986911774,    0.11883838474750519,    -0.25346049666404724, 
           0.20166386663913727,    0.0050446754321455956,    -0.4478174149990082, 
           -0.6247785091400146,    -0.27435335516929626,    0.4737868309020996, 
           -0.4911094307899475,    -0.5472168326377869,    0.39532607793807983, 
           -0.22194483876228333,    -0.3447769582271576,    0.36477699875831604, 
           -0.1346796154975891,    0.3708484172821045,    -0.2776240110397339, 
           -0.16391077637672424,    0.01793503947556019,    0.24432997405529022, 
           -0.25812968611717224,    -0.03293047845363617,    0.03703433647751808, 
           0.19633086025714874,    0.03598158061504364,    -0.27384644746780396, 
           0.22082644701004028,    -0.04317585006356239,    -0.26456624269485474, 
           0.1539318710565567,    0.1846965253353119,    0.13206443190574646, 
           -0.13476037979125977,    0.04141683503985405,    -0.05499762296676636, 
           -0.061183616518974304,    -0.0025732594076544046,    -0.00934271328151226, 
           -0.2538747787475586,    0.18542279303073883,    0.30292898416519165, 
           -0.04425963759422302,    0.17116180062294006,    0.3319356143474579, 
           -0.2550862729549408,    0.027771446853876114,    0.4526636600494385, 
           0.0087573928758502,    -0.04911617562174797,    0.05522845685482025 
        };
        static filter_t filter4 = { weights4, -0.10571612417697906}; 
        filters[4]=filter4;
            
        static const float weights5[]={
           0.10892961174249649,    0.3637412190437317,    0.31215980648994446, 
           -0.12019780278205872,    0.04815748706459999,    0.2582632899284363, 
           -0.15589448809623718,    -0.0914565846323967,    -0.12402714043855667, 
           0.25924715399742126,    0.22074832022190094,    -0.11833946406841278, 
           0.2133692055940628,    0.1961943656206131,    -0.2837161719799042, 
           -0.028012167662382126,    -0.08388105779886246,    -0.31875738501548767, 
           0.06701637804508209,    -0.09455499798059464,    0.23579590022563934, 
           -0.023586757481098175,    0.023841416463255882,    0.20411449670791626, 
           -0.25215384364128113,    -0.013101816177368164,    0.018568051978945732, 
           0.2610819637775421,    0.25850918889045715,    0.5760632157325745, 
           0.3636345863342285,    0.14312271773815155,    0.11080053448677063, 
           0.134573832154274,    0.2749767303466797,    0.11848597228527069, 
           0.036047935485839844,    0.03385467827320099,    0.10074015706777573, 
           0.14527952671051025,    0.06734447181224823,    -0.15771377086639404, 
           0.11531833559274673,    -0.3034088909626007,    -0.07067742198705673, 
           -0.09280753135681152,    -0.021126816049218178,    -0.04658367484807968, 
           -0.17236407101154327,    0.169369637966156,    -0.12486783415079117, 
           -0.38760653138160706,    -0.033030085265636444,    -0.12226726859807968, 
           0.04841604456305504,    0.3173564374446869,    0.16433511674404144, 
           0.18661800026893616,    -0.06689135730266571,    0.14750899374485016, 
           -0.09634539484977722,    -0.71135014295578,    0.021053576841950417, 
           0.29742303490638733,    0.35290491580963135,    0.25097692012786865, 
           -0.003978169057518244,    -0.07465080916881561,    0.32811152935028076, 
           0.07567980140447617,    0.09199753403663635,    0.03240419924259186 
        };
        static filter_t filter5 = { weights5, -0.04827165603637695}; 
        filters[5]=filter5;
            
        static const float weights6[]={
           0.13269387185573578,    -0.4324989914894104,    -0.6465132832527161, 
           0.1477406919002533,    -0.1315033733844757,    -0.4633437991142273, 
           0.07806641608476639,    -0.045357659459114075,    -0.6473092436790466, 
           -0.12628445029258728,    0.05162365734577179,    0.2684546411037445, 
           -0.4626966416835785,    0.13308967649936676,    0.3168197572231293, 
           -0.33170610666275024,    0.08041828125715256,    0.015825552865862846, 
           0.117897167801857,    -0.20294572412967682,    -0.0270498376339674, 
           0.073275625705719,    -0.26834121346473694,    -0.13631220161914825, 
           -0.15463197231292725,    -0.3191206157207489,    0.12323979288339615, 
           0.03949844464659691,    0.3530749976634979,    0.19095517694950104, 
           -0.16707773506641388,    0.2260110080242157,    0.0848097875714302, 
           -0.06585761159658432,    0.05883156880736351,    0.22699064016342163, 
           0.10929044336080551,    -0.6230893731117249,    -0.3789733946323395, 
           0.20618799328804016,    -0.053518906235694885,    -0.08964943140745163, 
           -0.05378670617938042,    0.009203177876770496,    -0.004853121004998684, 
           -0.12648645043373108,    -0.09022767096757889,    0.2251853346824646, 
           -0.1162346750497818,    -0.07692503184080124,    0.05082206428050995, 
           0.04263848438858986,    0.046526949852705,    0.07500648498535156, 
           -0.37476858496665955,    -0.16675271093845367,    0.003905411111190915, 
           -0.12536442279815674,    0.16913266479969025,    0.07509983330965042, 
           0.03861955925822258,    0.30694514513015747,    -0.022968146950006485, 
           -0.07515013217926025,    -0.12824386358261108,    -0.621329128742218, 
           0.2775901257991791,    0.1387551873922348,    -0.3134238123893738, 
           0.09668447822332382,    0.2727911174297333,    -0.4693359434604645 
        };
        static filter_t filter6 = { weights6, -0.02763405255973339}; 
        filters[6]=filter6;
            
        static const float weights7[]={
           -0.2935275733470917,    -0.403560072183609,    0.1611787974834442, 
           0.37730371952056885,    -0.014918695203959942,    -0.16327828168869019, 
           0.0465526208281517,    0.2867147922515869,    0.04976889491081238, 
           0.12027886509895325,    0.27872735261917114,    -0.11006200313568115, 
           -0.29678723216056824,    0.11815603077411652,    0.12631820142269135, 
           -0.01657981052994728,    0.0024789031594991684,    -0.19660650193691254, 
           0.319385826587677,    0.26050031185150146,    -0.03228374570608139, 
           -0.15015259385108948,    -0.054019369184970856,    0.22919516265392303, 
           -0.09979426115751266,    -0.3872423768043518,    -0.08340675383806229, 
           0.236483633518219,    0.008500995114445686,    -0.07034020125865936, 
           -0.17461395263671875,    0.3961634635925293,    0.421574205160141, 
           -0.22295621037483215,    0.08028878271579742,    0.10376104712486267, 
           -0.05857329070568085,    -0.1564900428056717,    0.1009979099035263, 
           -0.025716565549373627,    0.027808839455246925,    -0.03142544627189636, 
           -0.08545035868883133,    0.09268275648355484,    -0.1294289529323578, 
           0.053684402257204056,    0.26444685459136963,    -0.02643781341612339, 
           -0.15881483256816864,    -0.14783285558223724,    0.14978693425655365, 
           0.08112817257642746,    -0.08423732966184616,    -0.09052925556898117, 
           0.08336556702852249,    0.20219889283180237,    0.12637373805046082, 
           -0.060642119497060776,    -0.2567821741104126,    -0.5592967867851257, 
           -0.14701063930988312,    -0.05031950771808624,    -0.007460928987711668, 
           -0.02799919620156288,    -0.20037388801574707,    0.36580318212509155, 
           0.250949889421463,    -0.13723601400852203,    0.04283391684293747, 
           0.18773823976516724,    0.15335151553153992,    -0.1899987906217575 
        };
        static filter_t filter7 = { weights7, -0.029296567663550377}; 
        filters[7]=filter7;
            
        static const float weights8[]={
           0.3313162624835968,    -0.10940996557474136,    -0.1622866839170456, 
           0.07381498068571091,    0.2429085224866867,    -0.12333346158266068, 
           0.11181975156068802,    0.30238011479377747,    0.06032942980527878, 
           -0.035958386957645416,    0.03565584123134613,    -0.03389253094792366, 
           -0.06069313734769821,    0.06611379235982895,    0.1052456870675087, 
           -0.20426365733146667,    -0.07317421585321426,    -0.017029697075486183, 
           0.04867278039455414,    -0.2738237977027893,    0.1315189003944397, 
           -0.16971145570278168,    -0.038506630808115005,    0.1685798168182373, 
           -0.43260589241981506,    -0.30133163928985596,    -0.0836087092757225, 
           0.27859029173851013,    0.17792335152626038,    0.3089025914669037, 
           0.35988953709602356,    0.4383776783943176,    0.3606800436973572, 
           0.20193491876125336,    0.3022671639919281,    0.3877413868904114, 
           0.11934056878089905,    -0.7063829302787781,    -0.15939222276210785, 
           0.11551002413034439,    -0.07701714336872101,    0.25873619318008423, 
           0.16315308213233948,    0.17028777301311493,    0.25257691740989685, 
           -0.35420599579811096,    -0.0037615899927914143,    0.1465769112110138, 
           -0.4918752610683441,    -0.28323522210121155,    -0.13523098826408386, 
           -0.27510449290275574,    -0.19854392111301422,    0.14698965847492218, 
           -0.09684297442436218,    0.06016581878066063,    0.11525794118642807, 
           0.36387738585472107,    0.1885131448507309,    0.04209943488240242, 
           0.13759340345859528,    0.1410256028175354,    0.20546747744083405, 
           0.33854198455810547,    -0.32347744703292847,    -0.5105543732643127, 
           0.039826590567827225,    -0.3857925832271576,    -0.5255114436149597, 
           0.08271078020334244,    0.14960281550884247,    -0.573967695236206 
        };
        static filter_t filter8 = { weights8, 0.10113152116537094}; 
        filters[8]=filter8;
            
        static const float weights9[]={
           0.09339633584022522,    -0.08434268087148666,    0.004176524002104998, 
           -0.11388701945543289,    0.45434144139289856,    0.005646528210490942, 
           -0.13438622653484344,    0.35389256477355957,    -0.3700055778026581, 
           -0.1214928925037384,    0.15230263769626617,    -0.015062076039612293, 
           0.2384631186723709,    -0.32681435346603394,    0.07473096251487732, 
           0.18136809766292572,    -0.45403754711151123,    0.18001270294189453, 
           0.03957172483205795,    -0.003182768588885665,    0.20303158462047577, 
           -0.1960957944393158,    0.20051224529743195,    -0.09332297742366791, 
           -0.07077181339263916,    0.18958699703216553,    -0.14183057844638824, 
           -0.18680228292942047,    0.011775922030210495,    -0.11146455258131027, 
           0.4601890444755554,    -0.5519036054611206,    0.26426658034324646, 
           0.3506547808647156,    -0.30382776260375977,    0.3165161907672882, 
           0.12170276045799255,    -0.053030651062726974,    0.2715265154838562, 
           -0.0324232280254364,    -0.19013212621212006,    0.008487257175147533, 
           0.16632603108882904,    0.20333966612815857,    -0.059795551002025604, 
           0.11063724011182785,    0.09806501865386963,    -0.14629815518856049, 
           -0.029021456837654114,    -0.16021165251731873,    0.02272048033773899, 
           0.056283190846443176,    -0.004250228870660067,    0.10758107900619507, 
           0.17495231330394745,    -0.030521713197231293,    -0.23823504149913788, 
           0.050071533769369125,    -0.2956278324127197,    0.15882420539855957, 
           0.0553060881793499,    -0.17299705743789673,    0.11177130043506622, 
           0.09175881743431091,    0.013643653132021427,    0.15454138815402985, 
           -0.34059903025627136,    0.5713346600532532,    0.04179011285305023, 
           -0.2302693873643875,    0.35190799832344055,    0.06802660971879959 
        };
        static filter_t filter9 = { weights9, -0.07119917124509811}; 
        filters[9]=filter9;
            
        static const float weights10[]={
           0.32071176171302795,    0.39282479882240295,    0.09066641330718994, 
           -0.12386638671159744,    0.13454821705818176,    -0.028672141954302788, 
           -0.09243818372488022,    0.10463983565568924,    -0.09415499866008759, 
           -0.23996607959270477,    -0.12301599979400635,    0.14899906516075134, 
           0.11449014395475388,    0.14627410471439362,    -0.17246566712856293, 
           -0.026781730353832245,    0.05991954356431961,    0.06014125794172287, 
           -0.12676481902599335,    -0.4118744730949402,    -0.09693492203950882, 
           -0.029595760628581047,    0.03296671435236931,    0.24556872248649597, 
           -0.12091126292943954,    0.2535787522792816,    -0.20273169875144958, 
           -0.04259225353598595,    0.203891783952713,    0.15615618228912354, 
           0.018511608242988586,    0.142994686961174,    -0.1806657910346985, 
           0.18439322710037231,    0.13199639320373535,    0.09347939491271973, 
           0.20360136032104492,    0.10719706118106842,    -0.024290982633829117, 
           -0.10033499449491501,    -0.0058313459157943726,    -0.019719719886779785, 
           -0.1010294184088707,    0.02375718019902706,    -0.01273407880216837, 
           0.1454593986272812,    -0.1930079311132431,    -0.08067040890455246, 
           0.1738884001970291,    0.21584086120128632,    0.007606545463204384, 
           -0.04940538480877876,    -0.05851780250668526,    -0.15778934955596924, 
           0.009132258594036102,    0.602459728717804,    0.43955013155937195, 
           -0.07816629856824875,    -0.32356685400009155,    -0.33067166805267334, 
           -0.06127210333943367,    -0.17082428932189941,    0.2714141011238098, 
           0.48691895604133606,    0.46578019857406616,    -0.28311416506767273, 
           -0.06403514742851257,    -0.0001981150999199599,    0.14056015014648438, 
           -0.27590689063072205,    -0.03840099275112152,    0.009073449298739433 
        };
        static filter_t filter10 = { weights10, -0.04644569009542465}; 
        filters[10]=filter10;
            
        static const float weights11[]={
           -0.3072372078895569,    -0.12498732656240463,    -0.21593090891838074, 
           -0.12773063778877258,    0.1419258713722229,    -0.016689348965883255, 
           0.1495652198791504,    0.16235902905464172,    0.3627844452857971, 
           0.25550490617752075,    0.2873593866825104,    0.3061564564704895, 
           -0.07381967455148697,    -0.011715886183083057,    -0.20717784762382507, 
           0.005816648714244366,    0.0032282357569783926,    -0.2340068817138672, 
           0.278119832277298,    0.3470233082771301,    0.30084291100502014, 
           -0.021318655461072922,    0.08044923841953278,    0.07724185287952423, 
           -0.33974629640579224,    -0.17854775488376617,    -0.4266107976436615, 
           -0.19017578661441803,    0.21814888715744019,    0.23035576939582825, 
           -0.2924441695213318,    0.22206979990005493,    0.14793530106544495, 
           -0.5078093409538269,    -0.32200175523757935,    -0.11322163045406342, 
           -0.09958994388580322,    0.19521430134773254,    -0.2002907544374466, 
           -0.08860263973474503,    0.09699024260044098,    -0.325318306684494, 
           -0.10091041773557663,    0.15725772082805634,    -0.1061379536986351, 
           -0.11340607702732086,    0.12906233966350555,    0.24647299945354462, 
           0.06235377490520477,    -0.19512343406677246,    -0.3011515736579895, 
           0.07665631175041199,    -0.12226870656013489,    -0.017653856426477432, 
           -0.47786614298820496,    -0.2828540503978729,    -0.12963442504405975, 
           0.08967173099517822,    -0.1864706128835678,    0.06673060357570648, 
           0.34802743792533875,    0.18752340972423553,    0.25167036056518555, 
           0.11840438097715378,    0.11245317757129669,    -0.08015125244855881, 
           -0.16386057436466217,    -0.12843987345695496,    -0.11066712439060211, 
           0.08049764484167099,    0.2721610963344574,    0.1493701934814453 
        };
        static filter_t filter11 = { weights11, -0.16575407981872559}; 
        filters[11]=filter11;
            
        static const float weights12[]={
           0.20442770421504974,    -0.08213108032941818,    -0.057081207633018494, 
           -0.29381924867630005,    -0.393323689699173,    -0.21086636185646057, 
           0.2940734028816223,    0.05084193870425224,    0.07187744975090027, 
           -0.0837855115532875,    0.1675383448600769,    -0.15154966711997986, 
           0.21158723533153534,    0.17216500639915466,    -0.1443779617547989, 
           0.03467263653874397,    -0.2518134117126465,    -0.030788283795118332, 
           -0.058672185987234116,    -0.1032562330365181,    -0.07450546324253082, 
           0.11994737386703491,    0.2471994310617447,    0.17591756582260132, 
           0.2508147358894348,    0.13495776057243347,    -0.110128253698349, 
           0.05740657448768616,    -0.23865914344787598,    -0.6302546262741089, 
           0.007172201294451952,    -0.15623298287391663,    -0.321292906999588, 
           -0.1452145278453827,    -0.02840493991971016,    0.008700871840119362, 
           -0.225871279835701,    -0.14911916851997375,    0.0778522789478302, 
           -0.0672386959195137,    -0.154108464717865,    -0.19934651255607605, 
           -0.21384397149085999,    -0.11555027216672897,    0.07733333110809326, 
           0.10179445892572403,    0.01938493736088276,    0.11315242201089859, 
           0.1156500056385994,    0.09311939775943756,    -0.05637020245194435, 
           -0.12279792129993439,    -0.22578652203083038,    0.006351672112941742, 
           0.07357938587665558,    0.2550669014453888,    -0.032473258674144745, 
           -0.08632512390613556,    -0.5533636212348938,    -0.435380756855011, 
           0.08080998808145523,    -0.03126166760921478,    0.29339560866355896, 
           0.014952109195291996,    -0.038101959973573685,    -0.2847854495048523, 
           -0.17010559141635895,    -0.01987660862505436,    -0.15823785960674286, 
           -0.051193784922361374,    0.12387103587388992,    -0.18952269852161407 
        };
        static filter_t filter12 = { weights12, -0.0738643929362297}; 
        filters[12]=filter12;
            
        conv2d_layer_t layer = {13, filters, 8, { 3, 3 }, 1, {1, 1} };
        return layer;
}
        

conv2d_layer_t init_conv2d_35_data(void){

        static filter_t filters[18];
        
        static const float weights0[]={
           0.19404447078704834,    -0.1598581224679947,    0.20308712124824524, 
           -0.2800491452217102,    -0.19929668307304382,    -0.014247235842049122, 
           -0.43566638231277466,    -0.621120274066925,    -0.2142099142074585, 
           0.1238737627863884,    -0.0875273197889328,    0.14752091467380524, 
           -0.07427328079938889,    0.0020895497873425484,    0.12982922792434692, 
           0.043496936559677124,    0.15399333834648132,    0.3135378956794739, 
           -0.0001415602891938761,    -0.047036170959472656,    -0.3388625681400299, 
           -0.17899510264396667,    -0.2374967783689499,    -0.1750011295080185, 
           -0.2901206612586975,    -0.41798001527786255,    -0.24721859395503998, 
           0.030103182420134544,    -0.09965608268976212,    0.16449503600597382, 
           -0.22029177844524384,    -0.07995923608541489,    -0.05277850851416588, 
           -0.04013267531991005,    -0.10723331570625305,    0.08049816638231277, 
           -0.17705251276493073,    -0.4068717360496521,    0.03438376262784004, 
           -0.43920478224754333,    -0.35996440052986145,    -0.09300687164068222, 
           -0.2247694432735443,    -0.3875344395637512,    -0.0005970803322270513, 
           0.1398594230413437,    -0.005800539627671242,    -0.04927903413772583, 
           0.1048237681388855,    0.07036237418651581,    0.10150815546512604, 
           0.14176274836063385,    -0.13677850365638733,    0.06523773074150085, 
           -0.004352294374257326,    0.07034144550561905,    0.10309319943189621, 
           -0.06908281147480011,    -0.09613192081451416,    0.29381832480430603, 
           -0.26369452476501465,    -0.027131108567118645,    0.08418312668800354, 
           0.07518451660871506,    0.20499996840953827,    0.24448150396347046, 
           0.33492496609687805,    0.004591854754835367,    0.14570192992687225, 
           -0.17001530528068542,    -0.21492716670036316,    -0.30223914980888367, 
           0.13272011280059814,    -0.006383522879332304,    0.0807725265622139, 
           0.019294874742627144,    -0.09182773530483246,    0.06305023282766342, 
           -0.060367949306964874,    -0.14720918238162994,    -0.05903250351548195, 
           0.29120105504989624,    0.28840357065200806,    0.2934282720088959, 
           0.2268160581588745,    0.15989166498184204,    0.15741629898548126, 
           0.13490960001945496,    -0.07434999197721481,    0.15637366473674774, 
           0.18119150400161743,    0.091224305331707,    0.04056870564818382, 
           0.28792762756347656,    -0.0010961944935843349,    0.2164376676082611, 
           0.3879770338535309,    0.027584824711084366,    0.1733565777540207, 
           -0.4994184970855713,    -0.4397125244140625,    -0.4119751751422882, 
           -0.39929693937301636,    -0.5393251180648804,    -0.22504258155822754, 
           -0.7282078266143799,    -0.6573286056518555,    -0.3260200321674347, 
           -0.0846116915345192,    -0.26644614338874817,    0.17049647867679596, 
           -0.1929597556591034,    0.0072728293016552925,    -0.14867527782917023, 
           -0.1720096617937088,    -0.01430475153028965,    0.11216730624437332 
        };
        static filter_t filter0 = { weights0, 0.062110185623168945}; 
        filters[0]=filter0;
            
        static const float weights1[]={
           -0.06274707615375519,    -0.12825699150562286,    -0.2931974530220032, 
           0.36880481243133545,    0.22081905603408813,    0.0026747388765215874, 
           0.1927241086959839,    0.3354431092739105,    0.12652172148227692, 
           -0.35798144340515137,    -0.004433364607393742,    -0.1276988387107849, 
           -0.12786227464675903,    -0.08306626230478287,    0.17279092967510223, 
           0.023547518998384476,    -0.1294795572757721,    0.28708603978157043, 
           -0.3816627860069275,    -0.21412962675094604,    -0.1739082932472229, 
           -0.4647964835166931,    -0.05804053694009781,    -0.09880638867616653, 
           -0.64784836769104,    -0.3687193989753723,    -0.013207191601395607, 
           0.16535578668117523,    -0.14480912685394287,    -0.11517081409692764, 
           0.003098595654591918,    -0.4049665331840515,    -0.4145026206970215, 
           -0.39608117938041687,    -0.7205209732055664,    -0.588772177696228, 
           -0.12752464413642883,    -0.11701057851314545,    -0.6096737384796143, 
           0.1618211418390274,    -0.21021005511283875,    -0.3646972179412842, 
           0.1032368540763855,    0.05461878702044487,    -0.0005964888841845095, 
           -0.3392847180366516,    -0.3156842589378357,    0.004600219428539276, 
           -0.12283539772033691,    -0.14700932800769806,    0.01596003957092762, 
           0.3690764307975769,    0.16401569545269012,    0.055274032056331635, 
           -0.1990109384059906,    -0.2571372985839844,    0.07405494898557663, 
           -0.01595822349190712,    -0.11870280653238297,    0.04328309744596481, 
           -0.0007206700975075364,    -0.14744418859481812,    0.010122675448656082, 
           -0.058247484266757965,    -0.00417307810857892,    0.08705523610115051, 
           0.10500993579626083,    0.016240209341049194,    -0.0027483650483191013, 
           0.11723483353853226,    -0.03392922878265381,    0.17015282809734344, 
           -0.30711624026298523,    -0.15892475843429565,    0.029402678832411766, 
           -0.22711563110351562,    -0.024494515731930733,    0.16943047940731049, 
           -0.14473940432071686,    -0.0865650549530983,    0.26137465238571167, 
           -0.1639246791601181,    0.04141645133495331,    0.0010183920385316014, 
           0.060288574546575546,    -0.025418397039175034,    -0.12566226720809937, 
           0.18857070803642273,    0.1885533332824707,    0.12673525512218475, 
           0.014572286047041416,    -0.11874009668827057,    0.02571955695748329, 
           0.14440757036209106,    -0.047259002923965454,    -0.3270472586154938, 
           0.008916659280657768,    -0.08390592038631439,    -0.00354575552046299, 
           -0.3227827847003937,    0.07419952005147934,    -0.2403852492570877, 
           -0.06689240038394928,    -0.0005579087883234024,    -0.040873754769563675, 
           0.13109499216079712,    0.011620784178376198,    0.05156354233622551, 
           0.07909463346004486,    -0.14586305618286133,    -0.04021665081381798, 
           0.19226504862308502,    -0.07697740942239761,    -0.04814613610506058, 
           0.04837463051080704,    -0.20051653683185577,    -0.10491985827684402 
        };
        static filter_t filter1 = { weights1, 0.07607729732990265}; 
        filters[1]=filter1;
            
        static const float weights2[]={
           0.12832407653331757,    -0.0982557088136673,    -0.13205289840698242, 
           0.20735204219818115,    0.12088669091463089,    -0.10100430995225906, 
           -0.08275310695171356,    -0.014583933167159557,    0.0649772584438324, 
           0.21129217743873596,    0.2869206666946411,    0.013650186359882355, 
           0.1715649962425232,    0.1416410356760025,    -0.03368797525763512, 
           0.1648341864347458,    0.06808247417211533,    0.2138608694076538, 
           -0.25571906566619873,    0.2219366431236267,    -0.04415524750947952, 
           -0.15890194475650787,    0.2092272788286209,    -0.23515582084655762, 
           -0.33372482657432556,    -0.05773671716451645,    -0.2838709354400635, 
           0.005827019922435284,    0.02134227752685547,    -0.13807077705860138, 
           -0.09060121327638626,    0.06344131380319595,    -0.1389990746974945, 
           0.09920261800289154,    0.09538955241441727,    -0.10579579323530197, 
           -0.13357427716255188,    -0.21408893167972565,    0.04848914220929146, 
           -0.2699964642524719,    -0.10167932510375977,    0.23150423169136047, 
           0.006296162493526936,    -0.17380771040916443,    -0.045583926141262054, 
           0.23425322771072388,    0.48799604177474976,    0.27473750710487366, 
           0.11443617194890976,    0.13429005444049835,    0.12091922760009766, 
           0.11812004446983337,    0.20434600114822388,    0.12657396495342255, 
           0.16729740798473358,    -0.11348456889390945,    0.17483316361904144, 
           -0.03909090906381607,    0.034088149666786194,    0.2814186215400696, 
           -0.0031442008912563324,    0.017775684595108032,    0.254738986492157, 
           -0.2702283263206482,    0.06416162103414536,    0.19007346034049988, 
           -0.015133071690797806,    -0.08175037801265717,    0.13876037299633026, 
           -0.14547975361347198,    0.19371691346168518,    0.1264052838087082, 
           -0.04350865259766579,    -0.04692283272743225,    -0.19329503178596497, 
           -0.21535435318946838,    -0.12716104090213776,    -0.13706134259700775, 
           -0.037083517760038376,    -0.2384747564792633,    -0.24949821829795837, 
           0.05586712434887886,    0.03745521232485771,    0.08363010734319687, 
           0.1760888695716858,    -0.08987346291542053,    0.02541925385594368, 
           0.19741885364055634,    0.20594367384910583,    0.06796743720769882, 
           -0.11640714108943939,    0.23813317716121674,    0.09914322197437286, 
           0.12758365273475647,    0.129811629652977,    0.26168474555015564, 
           0.01645876094698906,    0.023191289976239204,    0.17042741179466248, 
           -0.045715440064668655,    0.11457644402980804,    -0.023847918957471848, 
           -0.061989784240722656,    0.029058482497930527,    0.03148375079035759, 
           -0.14319993555545807,    0.04193415865302086,    0.0860576331615448, 
           0.15774992108345032,    0.2582056522369385,    0.01899902895092964, 
           0.09234442561864853,    0.15463854372501373,    -0.04965720698237419, 
           -0.1919257938861847,    -0.02715577743947506,    0.029375409707427025 
        };
        static filter_t filter2 = { weights2, -0.26183852553367615}; 
        filters[2]=filter2;
            
        static const float weights3[]={
           0.19096650183200836,    -0.41363176703453064,    -0.43425270915031433, 
           0.01562140230089426,    -0.027664680033922195,    -0.26514220237731934, 
           -0.25998398661613464,    -0.2765543460845947,    -0.1787913590669632, 
           0.08538655936717987,    -0.0799555853009224,    -0.06736057996749878, 
           -0.022843053564429283,    0.09235547482967377,    0.06312388181686401, 
           -0.00226270011626184,    0.05717446282505989,    0.2174782156944275, 
           0.04876995086669922,    -0.08217474073171616,    -0.2772056460380554, 
           0.44663017988204956,    0.12183687090873718,    0.03354290872812271, 
           0.23453126847743988,    0.15732239186763763,    -0.15289267897605896, 
           0.004844935145229101,    0.008732523769140244,    0.04901234060525894, 
           -0.26559120416641235,    -0.0942562073469162,    0.0021598143503069878, 
           -0.1199834868311882,    -0.145559161901474,    0.02813195437192917, 
           -0.4171468913555145,    0.12109826505184174,    0.10970985889434814, 
           -0.38241615891456604,    -0.6234377026557922,    -0.08262026309967041, 
           -0.2276674062013626,    -0.26384449005126953,    -0.04063599184155464, 
           -0.11514214426279068,    -0.20611365139484406,    -0.001492621609941125, 
           0.020258868113160133,    -0.3625169098377228,    -0.13992901146411896, 
           0.1941310465335846,    -0.27131354808807373,    -0.3646489381790161, 
           -0.04747779667377472,    -0.1847723126411438,    -0.14137102663516998, 
           0.02870340831577778,    0.00759193254634738,    0.16866843402385712, 
           -0.0829349234700203,    0.13768532872200012,    0.37881338596343994, 
           0.14557752013206482,    0.1719219982624054,    0.07161920517683029, 
           0.021655555814504623,    0.34020742774009705,    0.38386332988739014, 
           -0.17970067262649536,    -0.1564938873052597,    0.08016446232795715, 
           0.288586288690567,    0.04699487239122391,    -0.32636409997940063, 
           0.16304877400398254,    -0.08147842437028885,    -0.2617853581905365, 
           0.11157888919115067,    -0.13740113377571106,    -0.1645795702934265, 
           -0.20180478692054749,    -0.07267515361309052,    -0.13190603256225586, 
           0.09413047134876251,    0.05763458460569382,    0.1480747014284134, 
           -0.04805052652955055,    0.1756693720817566,    0.20550920069217682, 
           -0.1193091943860054,    0.23097580671310425,    0.3867035210132599, 
           -0.25293371081352234,    -0.3102930188179016,    0.14096593856811523, 
           0.0014293438289314508,    -0.23359796404838562,    -0.09385288506746292, 
           0.05143338069319725,    -0.05971008911728859,    -0.10773060470819473, 
           0.04070522263646126,    0.07781874388456345,    -0.012271431274712086, 
           -0.21328109502792358,    -0.2831144332885742,    -0.3924616277217865, 
           0.018425634130835533,    0.08231332153081894,    0.22985751926898956, 
           -0.09682367742061615,    -0.024310177192091942,    0.14569255709648132, 
           -0.10082471370697021,    -0.052358247339725494,    0.10009705275297165 
        };
        static filter_t filter3 = { weights3, 0.004415859002619982}; 
        filters[3]=filter3;
            
        static const float weights4[]={
           0.011699088849127293,    0.02902510203421116,    -0.2596067786216736, 
           -0.011943570338189602,    0.006919004954397678,    0.042244479060173035, 
           -0.17174875736236572,    -0.010502789169549942,    0.0879330188035965, 
           0.09981086850166321,    -0.008649799041450024,    -0.11381407827138901, 
           0.005459850188344717,    0.031053103506565094,    -0.10798916220664978, 
           0.2341116964817047,    0.34074079990386963,    0.2661704421043396, 
           -0.1673910915851593,    -0.09420919418334961,    -0.17157644033432007, 
           -0.4079577922821045,    -0.42011621594429016,    -0.42863020300865173, 
           0.004740525968372822,    0.07261154800653458,    -0.15504953265190125, 
           0.0604056790471077,    0.09633541107177734,    0.06682387739419937, 
           -0.17548686265945435,    0.08344326913356781,    0.13753284513950348, 
           -0.3239701986312866,    -0.394359290599823,    -0.05943569913506508, 
           -0.661004364490509,    -0.28846049308776855,    -0.1146140992641449, 
           -0.23312851786613464,    -0.03490888327360153,    -0.2744913697242737, 
           -0.02696188911795616,    -0.24079729616641998,    -0.16121111810207367, 
           0.21506860852241516,    0.23635034263134003,    0.226929172873497, 
           0.24332556128501892,    0.35560062527656555,    0.44202110171318054, 
           0.23002247512340546,    0.3811623454093933,    0.12087898701429367, 
           -0.0904335230588913,    -0.25479453802108765,    -0.31401172280311584, 
           0.03355368971824646,    -0.13997721672058105,    -0.07660035043954849, 
           0.12606988847255707,    0.025037948042154312,    -0.0064137838780879974, 
           0.22675681114196777,    0.21959170699119568,    0.25654733180999756, 
           -0.016499556601047516,    0.08065538853406906,    0.18171928822994232, 
           0.16594159603118896,    0.20054572820663452,    -0.10202205926179886, 
           -0.25853678584098816,    -0.39942803978919983,    -0.29770809412002563, 
           0.022374358028173447,    -0.2572645843029022,    -0.30028125643730164, 
           0.10726950317621231,    0.04837474226951599,    -0.05886252224445343, 
           0.038619592785835266,    0.18110032379627228,    -0.0936851054430008, 
           0.11977051198482513,    0.16062000393867493,    0.15245036780834198, 
           0.11804963648319244,    0.031586360186338425,    0.06822290271520615, 
           0.10332202911376953,    -0.021806659176945686,    -0.028059974312782288, 
           -0.11498738825321198,    -0.013184268027544022,    0.11484687775373459, 
           -0.11281050741672516,    0.18343231081962585,    -0.04521549493074417, 
           0.0844438374042511,    0.1671007126569748,    -0.15546955168247223, 
           -0.09206712990999222,    0.048392508178949356,    -0.1628021001815796, 
           0.11729524284601212,    0.13237595558166504,    0.03363581374287605, 
           -0.05095851048827171,    0.016191929578781128,    0.06965803354978561, 
           0.015802526846528053,    0.11109178513288498,    0.09617757052183151, 
           0.016433998942375183,    -0.021972939372062683,    0.0024396171793341637 
        };
        static filter_t filter4 = { weights4, -0.19278664886951447}; 
        filters[4]=filter4;
            
        static const float weights5[]={
           0.09404880553483963,    0.21339519321918488,    0.14350120723247528, 
           0.22961784899234772,    0.12211964279413223,    -0.0789564773440361, 
           0.2506749629974365,    0.23019708693027496,    0.17381833493709564, 
           0.06770695000886917,    0.014346921816468239,    0.043079689145088196, 
           0.03111630491912365,    -0.02953244186937809,    0.04090500622987747, 
           0.07764967530965805,    0.1551714390516281,    -0.09539864212274551, 
           0.04425789788365364,    -0.06271377950906754,    0.03281852602958679, 
           0.014516091905534267,    -0.043325819075107574,    0.06079081445932388, 
           -0.08838295936584473,    -0.10574931651353836,    0.13082142174243927, 
           -0.27743664383888245,    0.022175904363393784,    -0.05422726273536682, 
           -0.1745079606771469,    -0.0029704382177442312,    -0.049008581787347794, 
           -0.029783902689814568,    0.040736544877290726,    0.23765939474105835, 
           0.2879539132118225,    0.2646292746067047,    -0.06466512382030487, 
           0.01711493358016014,    0.04734378680586815,    0.10090198367834091, 
           0.24909824132919312,    -0.07032322883605957,    -0.20839999616146088, 
           -0.11055482178926468,    0.07771608978509903,    0.11236253380775452, 
           0.0627126470208168,    -0.16345854103565216,    0.03226293623447418, 
           0.0027736949268728495,    -0.11855144798755646,    0.10114309191703796, 
           0.12781265377998352,    0.25929152965545654,    0.18162153661251068, 
           0.2908592224121094,    0.3133898675441742,    0.2911112308502197, 
           0.07659370452165604,    0.22612756490707397,    0.15807682275772095, 
           -0.2301422655582428,    -0.31080812215805054,    -0.106715127825737, 
           -0.23418642580509186,    -0.21986746788024902,    -0.20868144929409027, 
           0.0021382635459303856,    -0.3025517761707306,    -0.3229122459888458, 
           0.057757508009672165,    -0.060730479657649994,    -0.03679827228188515, 
           0.07295241206884384,    -0.03831665217876434,    -0.04370034858584404, 
           0.011832485906779766,    0.08415934443473816,    0.16371680796146393, 
           -0.08232318609952927,    -0.006983778905123472,    0.1704658418893814, 
           -0.048351969569921494,    -0.15392962098121643,    -0.12202177196741104, 
           -0.04753854498267174,    -0.29092562198638916,    -0.13246814906597137, 
           0.029903266578912735,    -0.07918432354927063,    -0.07055728137493134, 
           -0.020273685455322266,    0.0444733165204525,    -0.07782453298568726, 
           0.07176097482442856,    -0.14079317450523376,    0.11544126272201538, 
           0.07092476636171341,    -0.025951167568564415,    -0.053126249462366104, 
           0.0004902917426079512,    -0.24896389245986938,    -0.13227437436580658, 
           0.001814694027416408,    -0.1946491003036499,    -0.004283695016056299, 
           0.0526270866394043,    -0.13947437703609467,    -0.07400055974721909, 
           -0.07918975502252579,    -0.08635881543159485,    -0.03135983645915985, 
           -0.03508349508047104,    -0.01443550642579794,    0.12247887998819351 
        };
        static filter_t filter5 = { weights5, -0.044704362750053406}; 
        filters[5]=filter5;
            
        static const float weights6[]={
           -0.362456351518631,    -0.3045386075973511,    0.20261429250240326, 
           -0.31708183884620667,    0.04236479476094246,    0.04987455904483795, 
           -0.2523658871650696,    -0.13228541612625122,    -0.3636590838432312, 
           -0.23453648388385773,    0.03989606723189354,    -0.097055584192276, 
           0.12259887158870697,    -0.011764509603381157,    -0.06188911199569702, 
           0.2976987361907959,    0.245046466588974,    0.14921289682388306, 
           -0.3461640477180481,    0.06505763530731201,    -0.014857763424515724, 
           0.24370341002941132,    0.16901704668998718,    -0.11044929176568985, 
           -0.15423250198364258,    -0.34081271290779114,    -0.08330976217985153, 
           -0.11411244422197342,    0.009290466085076332,    -0.10650710016489029, 
           -0.09034916758537292,    -0.10161188244819641,    -0.05122443288564682, 
           -0.0021199677139520645,    -0.019147705286741257,    -0.03218588978052139, 
           0.18695661425590515,    0.17782999575138092,    0.18651388585567474, 
           0.13328124582767487,    0.3514968454837799,    0.1434972733259201, 
           -0.02150425687432289,    0.05225050449371338,    -0.1657877415418625, 
           0.1517193615436554,    0.19488078355789185,    0.46610939502716064, 
           0.21821123361587524,    0.20607349276542664,    0.37204888463020325, 
           0.05471450090408325,    0.11052975803613663,    -0.038011372089385986, 
           0.1683301031589508,    0.223504438996315,    0.14971162378787994, 
           0.31696775555610657,    0.30286043882369995,    0.20505696535110474, 
           0.09140702337026596,    -0.08271384239196777,    -0.1567840576171875, 
           -0.04643981531262398,    0.21611610054969788,    0.140032097697258, 
           0.19197697937488556,    -0.03476722911000252,    0.12039347738027573, 
           0.5480620265007019,    0.19119612872600555,    -0.2025068700313568, 
           -0.06279242783784866,    0.2039453238248825,    -0.03894072026014328, 
           -0.10162197053432465,    -0.03526182472705841,    -0.18834395706653595, 
           -0.20650498569011688,    -0.16503959894180298,    -0.09956227988004684, 
           -0.014865008182823658,    0.06587935984134674,    0.16545121371746063, 
           0.008077368140220642,    -0.19219698011875153,    0.010590577498078346, 
           -0.08875644207000732,    -0.1377265453338623,    -0.20762000977993011, 
           -0.02110794559121132,    -0.12955240905284882,    0.039943818002939224, 
           0.15833452343940735,    0.21690864861011505,    -0.21660059690475464, 
           0.30345219373703003,    -0.04735105112195015,    -0.1278957575559616, 
           -0.12164747714996338,    0.12931428849697113,    -0.15268971025943756, 
           -0.06268935650587082,    -0.2292296141386032,    0.10034456104040146, 
           0.3023095726966858,    0.24883528053760529,    -0.1273888647556305, 
           -0.28887027502059937,    -0.3480624854564667,    -0.2560496926307678, 
           0.1195433959364891,    -0.023308778181672096,    -0.11488325893878937, 
           0.16378547251224518,    0.09550444781780243,    -0.00964913610368967 
        };
        static filter_t filter6 = { weights6, -0.2309606373310089}; 
        filters[6]=filter6;
            
        static const float weights7[]={
           -0.028146564960479736,    0.08651644736528397,    -0.05379243940114975, 
           0.0469135157763958,    -0.00796063058078289,    -0.04318641871213913, 
           -0.10278479754924774,    0.03724319487810135,    -0.06181107461452484, 
           -0.20571362972259521,    -0.2326512187719345,    -0.1082746833562851, 
           -0.16126736998558044,    0.21912996470928192,    0.40068864822387695, 
           -0.299744188785553,    0.10246268659830093,    0.10201108455657959, 
           -0.57981938123703,    -0.13190174102783203,    -0.2909132242202759, 
           -0.5777984261512756,    -0.44266849756240845,    -0.1077304258942604, 
           -0.9700255990028381,    -0.6578534245491028,    -0.4365231990814209, 
           -0.02013283781707287,    -0.020547695457935333,    0.06796261668205261, 
           -0.014182426035404205,    -0.09947947412729263,    0.29041433334350586, 
           -0.09215019643306732,    -0.2423488348722458,    -0.07463964819908142, 
           -0.15006408095359802,    -0.08513583242893219,    -0.3558538258075714, 
           0.261569619178772,    -0.13768862187862396,    -0.06838994473218918, 
           0.1898249238729477,    -0.25104445219039917,    -0.27514830231666565, 
           0.2447037696838379,    0.03376301750540733,    0.19809670746326447, 
           0.3388255834579468,    0.41453927755355835,    0.20477670431137085, 
           0.15317969024181366,    0.22649043798446655,    0.14582164585590363, 
           0.11078985035419464,    -0.10153060406446457,    0.007674102205783129, 
           0.19145803153514862,    0.057931359857320786,    0.3600671589374542, 
           -0.04525085166096687,    -0.030565882101655006,    0.2031479924917221, 
           0.360629677772522,    -0.028911195695400238,    -0.14458821713924408, 
           0.23128579556941986,    0.2655481696128845,    -0.16207581758499146, 
           0.032904498279094696,    0.06973717361688614,    0.2186381220817566, 
           -0.5532500147819519,    -0.3978042006492615,    -0.3398763835430145, 
           -0.4974308907985687,    -0.2177315056324005,    -0.16615718603134155, 
           -0.394723117351532,    -0.13125421106815338,    -0.04221291095018387, 
           0.16898174583911896,    0.13924190402030945,    0.12698820233345032, 
           0.2719120681285858,    0.35505199432373047,    0.32807138562202454, 
           -0.036933861672878265,    0.12521961331367493,    0.06050850823521614, 
           -0.19239714741706848,    -0.24888911843299866,    -0.3033461272716522, 
           0.09196444600820541,    0.016655759885907173,    -0.1463223546743393, 
           0.31497615575790405,    0.21383948624134064,    0.10770665854215622, 
           -0.4464818239212036,    -0.4779897928237915,    -0.5458794236183167, 
           -0.44479331374168396,    -0.606800377368927,    -0.8824167847633362, 
           -0.26937437057495117,    -0.3721983730792999,    -0.39450693130493164, 
           -0.05589951202273369,    0.1364261955022812,    0.10352443903684616, 
           -0.09756680577993393,    0.024512847885489464,    0.06491266191005707, 
           0.002621431602165103,    0.01574055477976799,    0.29001128673553467 
        };
        static filter_t filter7 = { weights7, -0.08024400472640991}; 
        filters[7]=filter7;
            
        static const float weights8[]={
           0.14356476068496704,    -0.025508075952529907,    -0.15546442568302155, 
           0.42847225069999695,    0.09455130994319916,    -0.20981252193450928, 
           0.3651433289051056,    -0.06896857917308807,    0.05725843459367752, 
           0.21661633253097534,    -0.031019924208521843,    -0.10506641119718552, 
           0.06250296533107758,    0.1328277587890625,    -0.1278233826160431, 
           0.18783843517303467,    0.14226067066192627,    0.0033947990741580725, 
           -0.19476230442523956,    -0.08959951251745224,    -0.228095144033432, 
           0.1500532627105713,    -0.10746867954730988,    -0.15702608227729797, 
           0.04369695857167244,    -0.1005617082118988,    -0.14237599074840546, 
           -0.05400672182440758,    0.13201852142810822,    0.010557818226516247, 
           -0.008615394122898579,    0.13238926231861115,    -0.008831588551402092, 
           -0.08611565828323364,    0.17507930099964142,    0.03237337991595268, 
           -0.06220528483390808,    -0.16483859717845917,    -0.06238346919417381, 
           0.0624782033264637,    -0.39357808232307434,    0.042439062148332596, 
           0.11351721733808517,    0.048051342368125916,    0.19833314418792725, 
           -0.11661361157894135,    -0.1499687135219574,    -0.07659218460321426, 
           0.0668410211801529,    -0.07937636226415634,    0.04263710603117943, 
           0.03229118883609772,    -0.23176491260528564,    -0.056053463369607925, 
           0.162007674574852,    -0.11831583827733994,    -0.15644170343875885, 
           0.08446391671895981,    0.06280555576086044,    -0.08583368360996246, 
           0.24108847975730896,    0.21632039546966553,    0.12747815251350403, 
           -0.04124798998236656,    -0.20763836801052094,    0.09924992173910141, 
           -0.14954650402069092,    0.04275260865688324,    0.14254748821258545, 
           -0.01708083599805832,    -0.06935132294893265,    -0.02047952450811863, 
           -0.1171916127204895,    -0.12359872460365295,    -0.26073917746543884, 
           -0.1764063686132431,    -0.31424200534820557,    -0.10539447516202927, 
           -0.49732595682144165,    -0.1545940637588501,    -0.3103172183036804, 
           0.10163457691669464,    -0.14830382168293,    -0.24263189733028412, 
           0.13762708008289337,    -0.027977924793958664,    0.06894340366125107, 
           0.12827759981155396,    0.24916310608386993,    0.025827674195170403, 
           -0.10365147888660431,    -0.2157483696937561,    -0.32993966341018677, 
           -0.0364956259727478,    -0.14704322814941406,    0.08383125811815262, 
           0.292046457529068,    0.1562218815088272,    -0.07015698403120041, 
           0.16460396349430084,    -0.13782566785812378,    -0.056120313704013824, 
           0.16795222461223602,    -0.016357596963644028,    -0.13442392647266388, 
           0.030566586181521416,    -0.0806410014629364,    -0.11962969601154327, 
           0.20702694356441498,    0.14412885904312134,    -0.00557356933131814, 
           0.23894548416137695,    -0.05468299239873886,    -0.10267391800880432, 
           -0.01812354102730751,    -0.09952276945114136,    0.011842917650938034 
        };
        static filter_t filter8 = { weights8, -0.10780923068523407}; 
        filters[8]=filter8;
            
        static const float weights9[]={
           -0.11731009930372238,    -0.24295532703399658,    -0.1246890276670456, 
           -0.16527175903320312,    -0.1941864937543869,    -0.28098270297050476, 
           -0.12993179261684418,    -0.23656506836414337,    -0.016233647242188454, 
           -0.0448346883058548,    0.2890271246433258,    0.2595696449279785, 
           -0.13457755744457245,    0.19607974588871002,    0.034453004598617554, 
           -0.2235180139541626,    -0.01528825145214796,    -0.11553683131933212, 
           -0.010573260486125946,    0.21496747434139252,    -0.10486715286970139, 
           0.029433205723762512,    -0.0013615244533866644,    0.09566424041986465, 
           -0.17302535474300385,    0.06701382249593735,    0.05239240825176239, 
           -0.13806475698947906,    -0.16203948855400085,    -0.05669901520013809, 
           0.11739316582679749,    0.015903331339359283,    0.14416204392910004, 
           0.14742960035800934,    0.08236297219991684,    0.2786170244216919, 
           -0.31448376178741455,    -0.1846887767314911,    -0.07123319059610367, 
           -0.40342506766319275,    -0.2889806032180786,    -0.023080695420503616, 
           -0.39877355098724365,    -0.4052842855453491,    -0.17919601500034332, 
           0.10668591409921646,    -0.03904549777507782,    -0.019274067133665085, 
           -0.11335615813732147,    0.08210914582014084,    -0.30182796716690063, 
           0.17125283181667328,    0.026887353509664536,    -0.22875969111919403, 
           0.09126410633325577,    0.22537586092948914,    0.36442381143569946, 
           -0.13688695430755615,    -0.14685989916324615,    0.14340679347515106, 
           -0.0456216037273407,    -0.18117548525333405,    -0.10094457864761353, 
           0.095194973051548,    0.039355188608169556,    -0.03375260904431343, 
           -0.10382124036550522,    -0.12351015210151672,    0.11748392134904861, 
           -0.09615446627140045,    -0.15850962698459625,    0.1094711571931839, 
           0.22412128746509552,    0.05281887575984001,    -0.004073380492627621, 
           0.15476840734481812,    -0.23697572946548462,    -0.028053732588887215, 
           -0.041299548000097275,    -0.15282078087329865,    -0.17542167007923126, 
           0.10801882296800613,    0.1517268717288971,    0.20203179121017456, 
           -0.0005690776742994785,    0.15189775824546814,    0.08780348300933838, 
           -0.07777459919452667,    0.20885048806667328,    -0.10743676871061325, 
           0.11425168812274933,    -0.12772782146930695,    -0.08722004294395447, 
           0.0493999719619751,    0.2038199007511139,    0.0732882022857666, 
           0.2209632247686386,    0.15199337899684906,    0.08443887531757355, 
           -0.4298231601715088,    -0.13316859304904938,    -0.11460240930318832, 
           -0.3390747010707855,    -0.06221838667988777,    -0.08436466753482819, 
           -0.4859512746334076,    -0.38728663325309753,    -0.30299845337867737, 
           -0.23710396885871887,    -0.10726170986890793,    0.20237994194030762, 
           -0.11478724330663681,    0.10160829871892929,    0.23895008862018585, 
           0.008007721044123173,    0.0673985406756401,    0.1032581701874733 
        };
        static filter_t filter9 = { weights9, 0.0032840503845363855}; 
        filters[9]=filter9;
            
        static const float weights10[]={
           0.22913187742233276,    -0.043928809463977814,    -0.2349991649389267, 
           0.29105818271636963,    -0.03729959949851036,    -0.5510876774787903, 
           -0.0038145659491419792,    -0.23667940497398376,    0.08025647699832916, 
           -0.017376257106661797,    0.05994921550154686,    -0.5563369393348694, 
           -0.017310691997408867,    0.08953714370727539,    -0.28858354687690735, 
           -0.243690624833107,    -0.2088562548160553,    -0.1087598130106926, 
           -0.1447240263223648,    -0.01572985202074051,    0.32403838634490967, 
           -0.19337977468967438,    -0.04473021999001503,    -0.25248146057128906, 
           -0.05276497080922127,    -0.29762935638427734,    -0.16354791820049286, 
           -0.26345062255859375,    -0.21238426864147186,    -0.041095517575740814, 
           0.23511041700839996,    -0.00022484637156594545,    -0.150497168302536, 
           0.41694191098213196,    -0.00949909258633852,    -0.2779298722743988, 
           0.19452179968357086,    -0.040756549686193466,    -0.12653526663780212, 
           0.31447112560272217,    0.11157680302858353,    -0.6365877985954285, 
           0.22170613706111908,    0.23850582540035248,    -0.06282714009284973, 
           0.1137186735868454,    0.2562330961227417,    -0.5983260869979858, 
           0.2711104452610016,    0.18777725100517273,    -0.44814610481262207, 
           0.2592942416667938,    0.2193087488412857,    -0.14484526216983795, 
           0.38035398721694946,    0.3188704550266266,    -0.2978295087814331, 
           0.18681806325912476,    0.15945886075496674,    -0.019094370305538177, 
           0.22740674018859863,    0.09760930389165878,    -0.0720389187335968, 
           0.001334774773567915,    -0.10246927291154861,    -0.6962293386459351, 
           0.030924195423722267,    -0.025351205840706825,    -0.04212506115436554, 
           -0.015327388420701027,    0.08484117686748505,    0.0871247723698616, 
           -0.03321327641606331,    0.33833932876586914,    -0.29983359575271606, 
           0.05024723336100578,    0.014014733023941517,    -0.054387953132390976, 
           -0.051893286406993866,    -0.1309429109096527,    -0.3338492512702942, 
           -0.15819396078586578,    -0.07729247212409973,    -0.4910043776035309, 
           0.08883823454380035,    0.03100285865366459,    -0.2211306095123291, 
           0.19800296425819397,    0.19881148636341095,    -0.031593821942806244, 
           -0.08613624423742294,    0.06291595846414566,    -0.11326059699058533, 
           0.27363157272338867,    -0.04364226013422012,    -0.25895604491233826, 
           0.1528072953224182,    -0.015926692634820938,    -0.1737266182899475, 
           -0.059811048209667206,    -0.42036449909210205,    -0.902157723903656, 
           -0.2035154551267624,    -0.08033278584480286,    -0.3286394476890564, 
           -0.13666042685508728,    -0.17115046083927155,    0.24451521039009094, 
           -0.1708810031414032,    -0.03327768296003342,    -0.08215638250112534, 
           0.009399649687111378,    -0.09667996317148209,    -0.023777034133672714, 
           -0.08693771809339523,    -0.20034313201904297,    0.12502920627593994 
        };
        static filter_t filter10 = { weights10, 0.009541629813611507}; 
        filters[10]=filter10;
            
        static const float weights11[]={
           0.2991747260093689,    0.020337505266070366,    0.046280793845653534, 
           0.14667293429374695,    0.04262712970376015,    0.20837140083312988, 
           -0.19794107973575592,    -0.21316497027873993,    0.011041897349059582, 
           0.2056676596403122,    -0.02846570499241352,    0.15665341913700104, 
           -0.12267745286226273,    -0.0490124449133873,    -0.08146809786558151, 
           -0.19923743605613708,    -0.25980350375175476,    -0.009069220162928104, 
           0.054335128515958786,    -0.03853485360741615,    -0.14271116256713867, 
           0.05580107122659683,    -0.12230989336967468,    0.06771653890609741, 
           0.005474427714943886,    -0.1896420121192932,    -0.16161857545375824, 
           0.09934969246387482,    0.17846256494522095,    0.006076586898416281, 
           0.14477436244487762,    -0.0015465518226847053,    -0.05317769944667816, 
           0.010424528270959854,    -0.16795603930950165,    -0.17496971786022186, 
           0.18288660049438477,    -0.049927279353141785,    0.10368996858596802, 
           0.01875659078359604,    0.048567820340394974,    0.20294176042079926, 
           0.062319155782461166,    -0.04469090700149536,    -0.21602456271648407, 
           -0.18507878482341766,    -0.2966768443584442,    -0.38621246814727783, 
           -0.17850704491138458,    -0.1759585291147232,    -0.4106270968914032, 
           -0.03699297830462456,    -0.24110256135463715,    -0.2588520348072052, 
           0.18777884542942047,    0.34576481580734253,    0.5452964305877686, 
           0.2541930377483368,    0.05964726209640503,    0.40057942271232605, 
           -0.01006314903497696,    -0.003583991900086403,    0.16904860734939575, 
           0.0011975745437666774,    0.09358341246843338,    0.03214849904179573, 
           -0.050775736570358276,    0.09603386372327805,    0.14486102759838104, 
           0.014416503719985485,    0.11080270260572433,    0.16444092988967896, 
           -0.24286894500255585,    0.034635212272405624,    -0.030875833705067635, 
           0.17234443128108978,    -0.037226203829050064,    -0.22826194763183594, 
           -0.12277914583683014,    -0.29363399744033813,    -0.07838322967290878, 
           -0.13725131750106812,    0.08195491135120392,    0.01136722881346941, 
           0.025078920647501945,    0.09248409420251846,    -0.18003614246845245, 
           -0.10014579445123672,    0.009256020188331604,    -0.2871060073375702, 
           -0.030408719554543495,    0.268185555934906,    -0.010855281725525856, 
           0.23454026877880096,    -0.16194914281368256,    0.11026427894830704, 
           -0.2149294912815094,    -0.11684064567089081,    -0.05138075724244118, 
           0.03317943960428238,    0.11843397468328476,    0.15742415189743042, 
           -0.032558705657720566,    -0.24470236897468567,    -0.05232161656022072, 
           0.2324647307395935,    -0.18196380138397217,    -0.057334236800670624, 
           -0.13957418501377106,    0.13284717500209808,    0.17547547817230225, 
           -0.146601602435112,    0.11280336230993271,    -0.12123128771781921, 
           -0.016105426475405693,    0.02888946421444416,    0.13672280311584473 
        };
        static filter_t filter11 = { weights11, -0.014186250045895576}; 
        filters[11]=filter11;
            
        static const float weights12[]={
           -0.0643763542175293,    -0.15559329092502594,    -0.08605828136205673, 
           -0.04348544031381607,    0.061618272215127945,    0.0179157592356205, 
           0.08912494033575058,    0.14024820923805237,    -0.14703132212162018, 
           -0.009764879941940308,    0.12387863546609879,    0.010134026408195496, 
           -0.03190400078892708,    0.18952518701553345,    0.1293378621339798, 
           -0.024737829342484474,    0.13350225985050201,    -0.09047643840312958, 
           -0.07342775166034698,    0.23235498368740082,    0.13416346907615662, 
           -0.19456125795841217,    0.156772643327713,    0.07870912551879883, 
           -0.5243245363235474,    -0.12189866602420807,    -0.024752015247941017, 
           -0.07742414623498917,    0.08535399287939072,    -0.04873841628432274, 
           -0.03935990482568741,    0.050676774233579636,    0.1110958456993103, 
           -0.14516128599643707,    -0.007686261553317308,    -0.1274184286594391, 
           0.2452671378850937,    0.22227869927883148,    0.243163600564003, 
           -0.030930563807487488,    -0.1899241954088211,    -0.09031688421964645, 
           0.15407626330852509,    0.01396914478391409,    -0.023396722972393036, 
           0.11281884461641312,    -0.08350303769111633,    -0.18981727957725525, 
           0.14456230401992798,    -0.0529952235519886,    -0.10510745644569397, 
           -0.048755843192338943,    -0.3274047374725342,    0.13324375450611115, 
           0.3224868178367615,    0.14960429072380066,    0.2916087806224823, 
           0.1260172426700592,    0.19096677005290985,    0.08903180062770844, 
           -0.19930842518806458,    0.04521012306213379,    0.08162321895360947, 
           -0.10921134799718857,    -0.020684925839304924,    -0.2943279445171356, 
           -0.1420009583234787,    0.24802248179912567,    0.06426727026700974, 
           0.2655867636203766,    0.1923736184835434,    0.2624844014644623, 
           -0.046557825058698654,    -0.14183999598026276,    -0.05582654848694801, 
           -0.5056115388870239,    -0.1827574372291565,    -0.3988623321056366, 
           -0.3664987087249756,    -0.07677492499351501,    -0.08395811170339584, 
           0.09238900244235992,    0.11331530660390854,    0.17221011221408844, 
           0.05493050813674927,    0.04616246744990349,    0.02115812338888645, 
           0.036384452134370804,    -0.10448931902647018,    0.1590738594532013, 
           0.019688114523887634,    -0.1312660425901413,    -0.053632110357284546, 
           0.35772350430488586,    0.3485780954360962,    0.06027812883257866, 
           -0.11682355403900146,    0.001861825818195939,    -0.24936291575431824, 
           -0.17354537546634674,    -0.17740128934383392,    -0.2087162733078003, 
           -0.02932327799499035,    0.23065699636936188,    0.07468734681606293, 
           0.2702155113220215,    0.44008395075798035,    0.20737479627132416, 
           -0.23541207611560822,    -0.1799088418483734,    -0.046988509595394135, 
           0.18768051266670227,    0.1459732949733734,    0.07657363265752792, 
           0.10679058730602264,    -0.24601955711841583,    -0.2922586500644684 
        };
        static filter_t filter12 = { weights12, -0.33910074830055237}; 
        filters[12]=filter12;
            
        static const float weights13[]={
           0.029332304373383522,    0.013619799166917801,    -0.03479602187871933, 
           -0.17021772265434265,    -0.17435352504253387,    -0.23302078247070312, 
           -0.46753621101379395,    -0.4482297897338867,    -0.2718527913093567, 
           0.22912627458572388,    0.040149204432964325,    0.28302520513534546, 
           0.1696639060974121,    0.15145497024059296,    0.10599534958600998, 
           -0.02275496907532215,    0.16845403611660004,    0.2889139950275421, 
           -0.1563124805688858,    -0.14959903061389923,    -0.034782689064741135, 
           -0.19833126664161682,    -0.4975474774837494,    -0.3402833342552185, 
           -0.2542514503002167,    -0.39904770255088806,    -0.17692217230796814, 
           -0.09277678281068802,    -0.1083240807056427,    -0.19586826860904694, 
           -0.11539673060178757,    -0.06644882261753082,    -0.07163091748952866, 
           0.12444335222244263,    0.16253170371055603,    0.15661382675170898, 
           -0.018029330298304558,    0.04482163488864899,    0.024666447192430496, 
           -0.012787558138370514,    -0.10625164210796356,    -0.1710849404335022, 
           0.19841592013835907,    -0.11366970837116241,    -0.10646715015172958, 
           0.05277591198682785,    0.19583633542060852,    0.4775666892528534, 
           0.1415221393108368,    -0.003251731861382723,    0.25954318046569824, 
           -0.21438570320606232,    0.04928119480609894,    -0.11415895819664001, 
           -0.08681117743253708,    -0.30425825715065,    -0.1005496084690094, 
           -0.2871271073818207,    -0.49398738145828247,    -0.3162654936313629, 
           -0.2503584921360016,    -0.5316686630249023,    -0.10986578464508057, 
           0.30415183305740356,    0.15503497421741486,    0.21110209822654724, 
           0.22380949556827545,    0.2056092470884323,    -0.08945466578006744, 
           0.12979377806186676,    -0.11401142179965973,    -0.18474581837654114, 
           0.0006824076408520341,    -0.34973809123039246,    -0.19612587988376617, 
           -0.1808696836233139,    -0.14880016446113586,    -0.20389129221439362, 
           -0.17226986587047577,    -0.5476470589637756,    -0.14318187534809113, 
           0.32359927892684937,    0.30930066108703613,    0.2205822467803955, 
           0.10621914267539978,    -0.03732435777783394,    -0.10262375324964523, 
           -0.08072803914546967,    -0.13545222580432892,    -0.11006947606801987, 
           0.3061947524547577,    0.42739373445510864,    0.22905497252941132, 
           0.36902377009391785,    0.32828089594841003,    0.10589363425970078, 
           0.31825703382492065,    0.20915858447551727,    0.007464038208127022, 
           0.08083771914243698,    -0.19947947561740875,    -0.314314603805542, 
           -0.36629897356033325,    -0.24486508965492249,    -0.33390286564826965, 
           0.1969800889492035,    -0.23948846757411957,    -0.08220022171735764, 
           0.10829474776983261,    0.07505840808153152,    0.010780700482428074, 
           0.022681567817926407,    -0.14894339442253113,    -0.12529422342777252, 
           0.17279388010501862,    0.1710307002067566,    -0.014871660619974136 
        };
        static filter_t filter13 = { weights13, -0.005429532844573259}; 
        filters[13]=filter13;
            
        static const float weights14[]={
           0.12730400264263153,    0.22720031440258026,    0.07216542214155197, 
           -0.1983165740966797,    0.14118638634681702,    0.25462785363197327, 
           -0.22567400336265564,    -0.14687399566173553,    0.16391903162002563, 
           -0.21828125417232513,    -0.18398721516132355,    -0.19528606534004211, 
           0.15149405598640442,    0.10551012307405472,    0.20160071551799774, 
           -0.1579553633928299,    0.044871989637613297,    0.20099382102489471, 
           0.24034295976161957,    0.03253733366727829,    -0.09456369280815125, 
           -0.031853340566158295,    0.05678252503275871,    0.1595507562160492, 
           -0.12643703818321228,    -0.09997667372226715,    -0.07116769254207611, 
           0.06808844953775406,    -0.29664209485054016,    0.10696656256914139, 
           -0.18602557480335236,    -0.18692831695079803,    -0.027938300743699074, 
           -0.156144380569458,    0.04356827214360237,    -0.1282987892627716, 
           0.23589052259922028,    0.04147259145975113,    -0.04124443605542183, 
           0.19164742529392242,    0.32138311862945557,    -0.0993720293045044, 
           0.24310411512851715,    0.06329526007175446,    -0.03602725639939308, 
           0.31689926981925964,    0.0036339634098112583,    0.10682656615972519, 
           0.39088815450668335,    0.10504430532455444,    0.18392254412174225, 
           -0.13953520357608795,    0.01458552572876215,    0.01454174518585205, 
           -0.18102869391441345,    0.223049134016037,    0.17946933209896088, 
           0.3084934949874878,    0.22033245861530304,    0.28887057304382324, 
           0.15966713428497314,    -0.010045593604445457,    0.12402012199163437, 
           -0.1028713658452034,    -0.23690581321716309,    -0.271421879529953, 
           0.3923230767250061,    0.12170922756195068,    -0.17145928740501404, 
           0.03500910848379135,    0.29091036319732666,    -0.093666672706604, 
           0.07882083207368851,    -0.08469025790691376,    0.018162332475185394, 
           0.09632793813943863,    -0.41307687759399414,    -0.2742964029312134, 
           0.11073925346136093,    -0.1762581318616867,    -0.18382422626018524, 
           0.1727634221315384,    0.18427497148513794,    0.10199499875307083, 
           -0.03737805038690567,    0.34454846382141113,    0.10130605846643448, 
           -0.20216748118400574,    -0.041369255632162094,    0.023392455652356148, 
           -0.009796458296477795,    -0.103974349796772,    -0.3628823459148407, 
           0.09596165269613266,    0.2242266684770584,    -0.03300929069519043, 
           -0.019444964826107025,    -0.008958740159869194,    0.14432229101657867, 
           -0.48948654532432556,    -0.37528419494628906,    -0.4232930541038513, 
           -0.24454474449157715,    -0.7065929770469666,    -0.8009145259857178, 
           0.0830298364162445,    -0.16298450529575348,    -0.35234373807907104, 
           0.04814721271395683,    0.03743999823927879,    -0.09764644503593445, 
           -0.17727959156036377,    -0.023846864700317383,    0.10273072868585587, 
           -0.1965351104736328,    0.044325850903987885,    0.09537776559591293 
        };
        static filter_t filter14 = { weights14, -0.13899584114551544}; 
        filters[14]=filter14;
            
        static const float weights15[]={
           0.055595286190509796,    -0.009849767200648785,    0.3134515881538391, 
           0.002641726518049836,    -0.056740548461675644,    0.023782698437571526, 
           -0.11531247943639755,    0.10051725059747696,    -0.017254410311579704, 
           0.25544607639312744,    0.20863361656665802,    -0.09404799342155457, 
           0.17429351806640625,    0.1800399273633957,    0.13086801767349243, 
           -0.1817493736743927,    -0.10123701393604279,    -0.3101699650287628, 
           0.09090370684862137,    -0.20684869587421417,    -0.033717840909957886, 
           0.021630926057696342,    0.1396288275718689,    0.11579707264900208, 
           -0.04585949704051018,    -0.04200613871216774,    -0.07646298408508301, 
           -0.2190254181623459,    0.11253394931554794,    0.1622958928346634, 
           0.08335627615451813,    -0.1049271747469902,    -0.09848819673061371, 
           0.00618272740393877,    -0.03419237583875656,    -0.17898410558700562, 
           0.06041616573929787,    -0.06363686919212341,    0.05830584838986397, 
           0.14764058589935303,    -0.02971620485186577,    0.2496047019958496, 
           -0.1026298999786377,    -0.08136256039142609,    -0.18340446054935455, 
           0.19180262088775635,    0.14789418876171112,    -0.05217890441417694, 
           -0.2555930018424988,    -0.17807616293430328,    -0.1420210301876068, 
           -0.3023667633533478,    -0.21341879665851593,    -0.26310235261917114, 
           0.17402198910713196,    0.25373125076293945,    0.03374788537621498, 
           0.03430602326989174,    0.03696137294173241,    0.34312373399734497, 
           0.05446508899331093,    -0.28797346353530884,    -0.020023027434945107, 
           0.044222280383110046,    -0.02952696941792965,    -0.0026143130380660295, 
           0.07466379553079605,    -0.029024280607700348,    -0.02195039577782154, 
           0.18173779547214508,    -0.13427042961120605,    -0.23529452085494995, 
           -0.2783887982368469,    -0.30452871322631836,    0.23450212180614471, 
           -0.43880411982536316,    -0.03993732109665871,    0.1214323416352272, 
           -0.035376206040382385,    0.01266107615083456,    0.09694579243659973, 
           -0.18592576682567596,    0.10033337771892548,    0.04722347483038902, 
           -0.15671959519386292,    -0.24200981855392456,    -0.11277753114700317, 
           0.02019708789885044,    -0.22488635778427124,    -0.2501699924468994, 
           0.30599361658096313,    0.07125063240528107,    0.06690151989459991, 
           0.22670996189117432,    -0.04274248704314232,    -0.12382907420396805, 
           -0.13845323026180267,    0.004948197863996029,    -0.2852649688720703, 
           0.16494444012641907,    -0.17793913185596466,    -0.0949108898639679, 
           0.2858226001262665,    0.007239920552819967,    0.07168130576610565, 
           0.3020423650741577,    0.32346129417419434,    -0.1587672084569931, 
           0.049276869744062424,    0.11302565038204193,    0.10473042726516724, 
           0.13112254440784454,    0.013024543412029743,    -0.19329404830932617, 
           0.004262152127921581,    0.014504905790090561,    -0.14022262394428253 
        };
        static filter_t filter15 = { weights15, 0.040262430906295776}; 
        filters[15]=filter15;
            
        static const float weights16[]={
           0.15424920618534088,    0.12406089156866074,    -0.01687486469745636, 
           -0.0668054074048996,    -0.059655994176864624,    0.21983939409255981, 
           -0.11122319847345352,    0.025124020874500275,    -0.14927147328853607, 
           -0.07208295166492462,    -0.156442791223526,    0.0811033844947815, 
           0.01748090609908104,    0.0700797513127327,    0.24900217354297638, 
           -0.004272751975804567,    0.06900991499423981,    0.17287708818912506, 
           -0.1829136162996292,    -0.14440281689167023,    -0.17555703222751617, 
           0.03165297955274582,    0.05649837851524353,    0.1811259239912033, 
           0.10191768407821655,    0.21979542076587677,    0.20352935791015625, 
           0.09447415918111801,    -0.321093887090683,    -0.6235475540161133, 
           0.05638208985328674,    -0.3240608870983124,    -0.5102922320365906, 
           0.0464911162853241,    -0.025784581899642944,    -0.017638443037867546, 
           0.20904383063316345,    -0.21453441679477692,    -0.08859537541866302, 
           0.3532223701477051,    0.19658192992210388,    0.16022728383541107, 
           -0.06466425955295563,    0.09148889780044556,    0.2388812005519867, 
           -0.25861725211143494,    -0.039050426334142685,    0.0461152046918869, 
           -0.31813254952430725,    -0.044248901307582855,    -0.0028335547540336847, 
           -0.33432742953300476,    -0.2187950611114502,    -0.598258376121521, 
           -0.0032530659809708595,    -0.3288838863372803,    0.025369081646203995, 
           0.17632286250591278,    -0.05922093614935875,    0.028178326785564423, 
           0.050499752163887024,    0.11143334209918976,    0.05327768623828888, 
           0.20430436730384827,    0.14453250169754028,    0.16492249071598053, 
           -0.01637931540608406,    -0.11997992545366287,    -0.20137594640254974, 
           0.14737781882286072,    0.042183730751276016,    -0.16472633183002472, 
           -0.45969194173812866,    -0.06097543239593506,    0.07730375230312347, 
           -0.39039018750190735,    0.08214075863361359,    0.0766620934009552, 
           -0.48172175884246826,    -0.10503687709569931,    -0.0645429715514183, 
           0.04977772757411003,    -0.17673619091510773,    0.12915948033332825, 
           0.11108511686325073,    0.0978713184595108,    0.12281539291143417, 
           0.0733623281121254,    0.10315513610839844,    0.2482239305973053, 
           0.2794221043586731,    -0.10850456357002258,    -0.17486977577209473, 
           0.18299177289009094,    0.05886586755514145,    -0.08676143735647202, 
           0.13593046367168427,    0.15677110850811005,    0.20780961215496063, 
           -0.1962270587682724,    -0.05298180505633354,    0.14924436807632446, 
           -0.027167880907654762,    -0.06360051780939102,    -0.1237763836979866, 
           -0.191930890083313,    -0.04166484624147415,    -0.31260907649993896, 
           0.19601061940193176,    -0.0593898631632328,    -0.28131645917892456, 
           0.02479948103427887,    -0.10175959765911102,    -0.21620211005210876, 
           0.04115864634513855,    -0.14631424844264984,    -0.3823067843914032 
        };
        static filter_t filter16 = { weights16, -0.029054846614599228}; 
        filters[16]=filter16;
            
        static const float weights17[]={
           0.2140742987394333,    0.16015245020389557,    0.015944702550768852, 
           0.18465150892734528,    0.24671952426433563,    -0.4609473943710327, 
           -0.1959764063358307,    -0.19066646695137024,    -0.18160951137542725, 
           -0.019950326532125473,    0.01935950666666031,    0.12214121967554092, 
           -0.03221842646598816,    -0.010667645372450352,    0.18652287125587463, 
           -0.28303858637809753,    -0.34270012378692627,    -0.23572735488414764, 
           -0.3146164119243622,    -0.16819795966148376,    -0.06706491112709045, 
           0.0024941726587712765,    0.2793728709220886,    -0.03813491761684418, 
           -0.03853439912199974,    -0.09235779196023941,    0.0702381283044815, 
           -0.04279200732707977,    -0.1476408988237381,    0.16360631585121155, 
           -0.12873025238513947,    -0.0674561858177185,    0.163116917014122, 
           -0.013737359084188938,    0.14283455908298492,    0.033461857587099075, 
           0.10243283212184906,    -0.039236173033714294,    -0.35009315609931946, 
           0.07609925419092178,    0.3130154013633728,    -0.4972454011440277, 
           -0.1311313509941101,    -0.06219096854329109,    -0.2090393751859665, 
           -0.2641074061393738,    -0.6469787359237671,    -0.41071945428848267, 
           -0.5581510663032532,    -0.6571866869926453,    -0.3995751440525055, 
           -0.3702017664909363,    -0.5428834557533264,    -0.19259218871593475, 
           -0.4163660407066345,    0.1045292317867279,    0.24594613909721375, 
           -0.44518622756004333,    0.12164067476987839,    0.1649060845375061, 
           -0.09840241074562073,    -0.08381396532058716,    0.02608594112098217, 
           -0.10913955420255661,    0.1079762727022171,    0.0688401311635971, 
           -0.3918726146221161,    -0.05637209489941597,    -0.10522574186325073, 
           -0.6957079172134399,    -0.36782315373420715,    -0.30483996868133545, 
           -0.03679073601961136,    0.23400014638900757,    0.20847171545028687, 
           -0.09696145355701447,    0.19568754732608795,    0.1339017003774643, 
           -0.10434909909963608,    -0.09714436531066895,    -0.00937915313988924, 
           0.09039102494716644,    0.0978977158665657,    -0.13815924525260925, 
           -0.0013143206015229225,    0.11829474568367004,    0.0002474786015227437, 
           -0.19343437254428864,    -0.057017650455236435,    -0.2027147263288498, 
           -0.21657481789588928,    -0.4005940556526184,    -0.5461675524711609, 
           -0.1284971535205841,    -0.1436975598335266,    -0.35075899958610535, 
           -0.21902510523796082,    0.08961226791143417,    0.11605396121740341, 
           0.19012382626533508,    0.08833958953619003,    -0.2610993981361389, 
           0.19366471469402313,    0.2644113302230835,    -0.13730958104133606, 
           -0.44013887643814087,    -0.8133097887039185,    -0.7149257659912109, 
           0.22026397287845612,    -0.01207223255187273,    0.13122738897800446, 
           -0.065619096159935,    0.03456031158566475,    -0.17918790876865387, 
           -0.09625918418169022,    -0.17189140617847443,    -0.21092361211776733 
        };
        static filter_t filter17 = { weights17, 0.2638551890850067}; 
        filters[17]=filter17;
            
        conv2d_layer_t layer = {18, filters, 13, { 3, 3 }, 1, {1, 1} };
        return layer;
}
        
dense_layer_t init_dense_44_data(void){

    static neuron_t neurons[12];

    /* [-0.00161487 -0.03876232  0.03275915 ... -0.00504118 -0.03443401
 -0.05865148] -0.019635049626231194*/
    static const float weights0[] ={
    -0.0016148736467584968, -0.038762323558330536, 0.032759152352809906, 0.020002657547593117, 
    0.021721474826335907, 0.02134556882083416, -0.0007697765831835568, -0.005043553188443184, 
    -0.043747082352638245, -0.06314847618341446, 0.023308299481868744, -0.0352148599922657, 
    0.009665257297456264, -0.017891498282551765, 0.024283334612846375, 0.011311471462249756, 
    0.011838972568511963, 0.020601168274879456, -0.03950662165880203, -0.05895690247416496, 
    0.019446328282356262, -0.009763117879629135, -0.04815550148487091, 0.015341237187385559, 
    -0.0634341835975647, -0.04613158106803894, -0.03733339160680771, -0.06078590452671051, 
    -0.013370353728532791, 0.03136783838272095, 0.011390777304768562, 0.025739122182130814, 
    0.006815802305936813, -0.02227730117738247, 0.006815982051193714, -0.0400201715528965, 
    -0.06888255476951599, 0.010560081340372562, 0.017574943602085114, -0.018730755895376205, 
    -0.03899450972676277, -0.02949858270585537, -0.028600312769412994, 0.019890842959284782, 
    -0.008630942553281784, -0.035574257373809814, -0.034299373626708984, -0.004068046808242798, 
    0.03591371327638626, 0.020521434023976326, 0.00827723927795887, 0.0429934486746788, 
    -0.0031107179820537567, 0.0012136846780776978, 0.017057202756404877, 0.04046587646007538, 
    -0.02609112113714218, -0.03824520483613014, 0.02416953817009926, -0.06433689594268799, 
    -0.03875001147389412, -0.018966414034366608, -0.0471777617931366, 0.009961612522602081, 
    -0.025080621242523193, -0.040705472230911255, -0.03718773275613785, -0.051373232156038284, 
    -0.005028461571782827, -0.028053032234311104, 0.02691926807165146, 0.0471319854259491, 
    -0.04375283047556877, 0.008141256868839264, 0.0014403089880943298, 0.030817747116088867, 
    -0.027293873950839043, -0.020238222554326057, 0.021851899102330208, -0.028272751718759537, 
